0.680223 
-1.653511 
-1.240407 
0.447797 
-0.953455 
-1.178038 
-2.075306 
1.352222 
-1.190609 
0.778935 
-1.020082 
-1.162567 
0.396349 
-1.397821 
-1.312224 
-1.281957 
-2.477359 
1.175609 
-0.240623 
-1.823031 
0.159956 
0.286051 
-0.618786 
-1.450965 
-0.403518 
-2.694071 
1.363882 
0.276414 
-0.794798 
-1.223994 
-0.728488 
-1.410642 
0.866749 
0.140955 
-0.580773 
-0.872557 
0.641865 
-0.625721 
-1.618525 
0.137921 
-0.009201 
-1.001081 
0.882000 
-0.610012 
-1.404354 
-0.690570 
-1.988073 
0.956283 
0.752012 
-3.108195 
0.223779 
-0.186451 
-0.259408 
-0.376521 
-1.269136 
-1.264611 
0.861472 
-0.890307 
-1.276840 
0.634860 
-1.803958 
0.633066 
-1.171384 
0.283612 
-0.415983 
-1.989910 
-0.094781 
-0.822253 
-0.825228 
-1.012931 
-0.682213 
0.282867 
-0.266521 
-0.531779 
-0.883968 
0.017497 
-0.409724 
-1.630045 
-0.713085 
-1.045728 
-0.193461 
-0.665253 
-0.684732 
-0.816980 
-0.426664 
-0.337167 
-1.233125 
-0.167924 
-0.584546 
-1.984478 
-0.681847 
-0.570616 
-0.994482 
-0.913845 
-0.572166 
-0.730946 
-0.308074 
-0.064406 
-1.094473 
-0.502185 
-1.112625 
0.307858 
-0.857610 
0.329056 
-1.248406 
-1.453037 
-2.127299 
0.913362 
0.526705 
-0.742697 
-2.610380 
0.508516 
-0.051194 
-2.083694 
0.062977 
-0.834821 
-2.344527 
-3.121685 
-1.116912 
2.212229 
-2.644976 
-1.614794 
2.303403 
-3.216561 
-1.229073 
2.149258 
0.468990 
-0.892806 
-1.802549 
0.149754 
-0.487040 
-2.189085 
0.182125 
-0.982826 
-1.765676 
-0.747593 
-0.587196 
0.155319 
-0.319762 
-1.218100 
-0.591618 
0.033889 
-1.906005 
-0.757375 
-0.963582 
-1.069383 
0.203490 
-0.231044 
-0.030249 
-1.208180 
-0.071984 
-0.194926 
-0.372559 
-1.451788 
-0.684695 
-0.512989 
0.481264 
-0.123588 
-0.967149 
-0.564013 
-0.738712 
-1.066762 
3.885733 
-0.322834 
-4.225108 
3.567051 
-0.405936 
-4.273327 
3.613177 
-0.591358 
-4.554052 
3.731446 
-0.415798 
-4.037852 
4.096279 
0.051845 
-4.240311 
3.872527 
-0.288222 
-4.216557 
3.751529 
-0.488115 
-4.305635 
3.715747 
-0.221155 
-4.466840 
4.044121 
-0.096882 
-3.929461 
0.837733 
0.974922 
-3.079920 
-1.862537 
-0.974888 
0.280169 
-1.626850 
-0.951851 
0.901442 
-1.685027 
-1.110235 
0.477998 
0.897740 
0.623538 
-2.988559 
-1.055274 
0.039964 
-0.301957 
-1.803434 
-0.484772 
0.690945 
-1.573148 
-0.594321 
0.990201 
0.442251 
0.500270 
-3.279782 
0.031917 
-2.190172 
-0.883974 
-1.425607 
-2.939393 
2.552806 
-0.399406 
-1.639680 
-0.663132 
-0.020440 
-1.052928 
-1.898856 
-2.597291 
1.534905 
-1.959817 
-0.111881 
-0.777002 
-1.313341 
0.233894 
-1.190617 
-1.685483 
-2.079746 
-2.780591 
1.948111 
0.200918 
-1.399254 
-0.903865 
-0.229124 
0.910902 
-2.629549 
-0.710796 
-2.151520 
2.474545 
-1.102233 
-1.944447 
1.658895 
0.657546 
0.133425 
-2.228767 
-1.088594 
-2.584013 
1.744819 
0.210160 
-1.146167 
-0.231787 
0.536036 
-0.300650 
-2.353184 
-0.575844 
-0.493787 
-0.868156 
-0.355632 
-1.029142 
-0.493010 
-1.110621 
-1.369534 
0.142689 
0.322440 
-0.719825 
-0.870082 
-1.084707 
-0.971910 
0.079141 
-0.181719 
-1.955378 
-0.720383 
-1.270857 
-1.329430 
0.952809 
-1.132281 
-0.493946 
-0.141246 
0.154812 
-1.170562 
-0.951719 
0.299182 
-0.624684 
-1.641985 
-1.899090 
-0.387820 
0.119435 
0.880915 
-0.561031 
-2.206505 
0.655411 
-1.148609 
-2.053417 
-0.297706 
-1.493476 
0.224572 
0.275055 
-1.504334 
-0.687330 
0.888961 
-1.025450 
-1.110117 
0.305545 
0.703940 
-2.976113 
0.300288 
0.269417 
-2.746316 
-0.298942 
-1.143649 
-0.454024 
-0.348667 
-1.270068 
0.022136 
0.034501 
-0.721125 
-1.455213 
-0.053461 
-0.815412 
-2.032981 
-0.778276 
-1.737001 
0.013440 
0.365754 
-0.617119 
-1.440475 
-0.112744 
-1.382305 
-1.556806 
-0.947334 
-1.228034 
0.723543 
-1.865419 
-2.076220 
1.489778 
-2.312819 
-1.552393 
1.193388 
-3.918198 
1.364378 
0.511988 
-0.170789 
-1.593706 
-0.559603 
-2.074249 
2.274856 
-2.374702 
-0.550875 
-1.599237 
-0.223994 
-0.209319 
-1.626552 
-0.918228 
-1.067603 
-1.562782 
0.416302 
0.088979 
-0.324452 
-1.798620 
0.559967 
-0.874229 
-2.439843 
-1.052093 
-1.932225 
0.620229 
1.296501 
-0.889197 
-1.671404 
0.672011 
-0.750775 
-2.181917 
0.295664 
-0.808005 
-2.518329 
-4.021149 
-0.962619 
2.363129 
0.254042 
-0.565816 
-1.928897 
-3.593793 
-1.455957 
2.159113 
-0.252628 
-1.078422 
-2.189610 
-3.668990 
-0.888097 
2.426428 
0.676155 
-0.317881 
-2.268968 
0.722035 
-0.475130 
-1.857569 
-1.697061 
-1.076921 
0.926705 
-1.538091 
-0.884856 
0.335667 
0.451747 
1.268029 
-2.457067 
-2.004145 
-0.630024 
0.726898 
0.601002 
1.374229 
-4.122472 
-1.489014 
-0.802751 
1.184472 
0.367694 
1.275128 
-3.540111 
-1.533312 
-0.291379 
0.277410 
-2.236056 
-1.475798 
0.864562 
-0.701672 
-0.840250 
-0.773524 
0.075938 
-0.330509 
-1.380875 
0.136826 
-0.778648 
-1.733627 
-0.126774 
-0.618975 
-0.939698 
-0.353108 
-0.095407 
-1.076924 
-0.506263 
0.054277 
-1.753452 
-0.371046 
-1.442817 
0.018423 
-0.382847 
-0.533180 
-0.319418 
-0.909323 
-0.810815 
-0.075305 
-0.895614 
-0.466573 
-0.540470 
-1.232193 
-0.402104 
-0.108365 
-0.745004 
-0.788629 
0.290983 
-1.375868 
0.223281 
-0.380068 
-0.520212 
-0.207721 
-1.404732 
-1.735062 
-0.790037 
-0.177566 
-0.537365 
-0.655062 
-1.280221 
-1.541993 
-0.702866 
0.002208 
-0.618346 
-1.432288 
0.047968 
-1.882714 
-2.543255 
2.172937 
-0.016500 
-0.937752 
-0.318768 
0.336369 
-0.598175 
-2.871202 
-1.113080 
-0.117982 
-0.671949 
-0.164843 
-1.013057 
-1.035124 
0.605232 
-0.367135 
-2.321097 
-1.368714 
-2.169720 
1.225425 
-0.846778 
-1.022121 
-0.914095 
0.737285 
0.448981 
-2.849286 
-4.320200 
-1.177154 
2.811543 
-3.863316 
-1.806473 
1.973960 
-3.915292 
-1.841490 
2.510909 
-0.134668 
-0.996413 
-1.364771 
0.553022 
-0.815743 
-2.753108 
0.146565 
-0.603691 
-2.448717 
0.350202 
-0.763543 
-2.602504 
0.147381 
-0.471451 
-2.591763 
0.627171 
-0.815597 
-2.477432 
-3.058745 
-1.471547 
1.770760 
-0.014592 
-0.374624 
-1.820320 
0.073451 
-0.878119 
-1.834862 
0.375333 
-0.178816 
-1.276062 
-2.447801 
-1.017996 
2.046237 
0.230076 
-0.147469 
-1.752139 
0.086464 
-0.350474 
-1.795525 
-0.601607 
-0.815606 
-1.312335 
-2.363190 
-0.470750 
1.704398 
0.504314 
-1.718713 
0.062186 
-0.903646 
-1.655649 
-0.032904 
0.307717 
-0.956828 
-0.633098 
-1.215592 
-0.936106 
0.069489 
1.061298 
-1.941037 
-0.482466 
-0.250321 
-1.132367 
-0.859529 
-1.192193 
-1.493357 
-0.246661 
-1.065584 
-0.046891 
-0.789741 
-0.103808 
-1.241458 
0.213056 
-0.823504 
-2.083787 
0.205671 
0.850685 
-1.229267 
-1.023004 
-0.307287 
-1.009925 
-0.304385 
-0.512526 
-1.859458 
0.340383 
0.289759 
-1.078290 
-0.603065 
-0.305847 
-1.101088 
-1.224662 
-1.591217 
1.674082 
-1.564479 
-0.396718 
-1.492404 
0.047530 
0.109265 
-2.009165 
-0.601719 
-0.650004 
-1.670036 
0.065651 
-1.676019 
-1.128542 
2.220182 
0.931838 
0.602224 
-2.698480 
0.687338 
-0.483358 
-1.798367 
-1.824430 
-2.342315 
2.762346 
1.534631 
0.109503 
-3.168514 
-0.152773 
-1.405508 
0.633886 
-2.107563 
-1.368474 
1.821660 
0.664106 
0.090377 
-3.168871 
-0.590909 
-1.676233 
0.136792 
-0.250956 
-0.955896 
-0.713487 
0.064764 
-1.246248 
-1.348861 
-2.604464 
1.418611 
-1.554473 
-0.758105 
-1.445874 
0.883641 
-1.747211 
-2.348280 
1.165138 
-1.009337 
-1.751562 
-0.259429 
-0.174089 
-1.357076 
-1.109180 
0.591569 
-1.662856 
-0.899054 
-1.426694 
-1.964627 
1.286504 
-0.607006 
-0.558138 
-1.489693 
-0.152166 
-1.143649 
-0.959017 
-1.657323 
0.936136 
-0.333655 
-0.174029 
-1.019538 
-1.021289 
-0.769497 
-1.066567 
-0.798781 
-1.432793 
-1.544608 
0.852549 
0.235464 
-0.583699 
-1.076602 
0.468975 
-1.542747 
-1.191085 
-1.309260 
-2.379435 
1.395112 
-0.168651 
-0.645306 
-0.129613 
-0.888008 
-1.316906 
0.151337 
-1.127180 
-2.008244 
1.871832 
-0.859895 
-2.331131 
1.637442 
-0.346498 
0.283035 
-0.710118 
0.023347 
0.774106 
-2.321020 
0.897811 
0.088213 
-2.409603 
0.737422 
0.364394 
-2.515391 
-1.246825 
-0.267721 
-0.072177 
0.133876 
-0.468041 
-1.592568 
0.089954 
-1.502427 
-0.554259 
-0.883551 
-2.496136 
2.212979 
-0.844681 
0.383101 
-1.685138 
-1.055364 
-2.303907 
1.582535 
-1.061397 
-1.954191 
1.128875 
0.518375 
-0.081093 
-1.304016 
0.290547 
-1.498583 
-0.698680 
-1.022321 
-1.092517 
-0.816738 
0.910101 
-0.611478 
-2.680231 
-0.328496 
-0.355262 
-0.917834 
-0.195903 
0.479535 
-2.035219 
-1.018220 
-1.856464 
0.203095 
-1.005790 
-2.211788 
0.836008 
-0.203260 
-0.695309 
-1.103022 
-0.300631 
-1.426524 
-1.164427 
-0.028165 
0.870717 
-3.044135 
0.712884 
0.235511 
-2.824643 
-1.241249 
-0.315158 
-0.989840 
0.392551 
-0.715984 
-0.952813 
0.401076 
-0.089168 
-2.598160 
-1.233493 
-2.705939 
1.983183 
-0.244991 
-1.377512 
-0.943744 
-0.106997 
0.345267 
-1.914530 
-1.339095 
-2.927238 
2.000077 
-0.860103 
-1.622920 
0.746770 
-5.299622 
-0.207979 
3.985900 
-5.641750 
-0.070011 
4.510093 
-5.053074 
0.085287 
4.346160 
-5.661488 
-0.154959 
4.304798 
-5.010880 
-0.186344 
3.725562 
-5.356281 
-0.035866 
4.420500 
-5.298234 
0.064282 
4.192291 
-5.571554 
0.271714 
4.578131 
-4.963147 
0.145964 
4.525548 
0.051200 
0.510096 
-2.342603 
0.026181 
-1.163903 
-0.163567 
0.064486 
-0.926493 
-0.629292 
-1.088242 
-2.397824 
1.564806 
-0.775732 
-1.913968 
1.288422 
-1.039939 
0.929158 
-1.860518 
-0.219256 
-1.740501 
-0.031509 
-0.576943 
-0.366414 
-1.307925 
-0.694636 
-1.596095 
0.179437 
-0.622856 
-2.109812 
1.089635 
0.089549 
0.461998 
-2.374561 
-0.767432 
-2.509516 
1.003928 
0.631066 
-0.396474 
-1.787613 
0.862814 
-1.676389 
-0.929446 
-0.245920 
-1.449638 
-0.037446 
0.477789 
-0.440925 
-2.459901 
1.120878 
-0.555518 
-2.268382 
-0.031049 
0.612836 
-2.574819 
0.188037 
-1.039103 
-0.911217 
0.346430 
-0.932323 
-1.286403 
-0.927351 
-1.931310 
0.996378 
-1.220439 
-1.865573 
0.723729 
-1.319597 
0.457563 
-1.170236 
-0.466472 
-3.019634 
1.973815 
0.836310 
-1.254254 
-0.574321 
0.703163 
-0.184952 
-1.560495 
-0.760606 
-0.319875 
-0.491806 
-1.092236 
-0.583142 
-0.616067 
-1.141126 
-1.251104 
-0.059227 
-2.081640 
-0.827583 
0.397770 
-1.848557 
-1.223303 
2.320422 
-1.939399 
-1.461891 
1.009841 
-2.853589 
1.458678 
-0.716518 
-0.512069 
-1.158273 
-1.261124 
-0.738754 
-1.022787 
-0.409908 
-2.008824 
-1.338358 
0.695749 
-2.399061 
-0.223839 
0.354525 
-0.392900 
-0.494724 
-0.920744 
0.190096 
-0.522358 
-1.706112 
-1.550217 
-2.219955 
1.381809 
-0.085884 
-1.652190 
-0.070318 
0.087056 
-0.501131 
-1.394290 
-2.094910 
-0.661723 
1.678269 
-0.366790 
-0.418774 
-1.402813 
0.972349 
-0.104344 
-1.756398 
-0.248068 
-0.815014 
-1.351892 
-0.041255 
-0.451022 
-1.652711 
-0.050775 
-0.541149 
-2.093065 
-0.057335 
-0.951566 
-0.796100 
0.587615 
-0.876271 
-1.916342 
0.250214 
-0.244291 
-2.440902 
-4.105566 
-0.299653 
1.740245 
-2.785472 
-1.376579 
1.997088 
-2.731198 
-1.959180 
1.985396 
0.396521 
-0.395876 
-2.043227 
-0.385956 
-1.172059 
-0.814557 
-2.884612 
-1.803241 
2.015254 
0.526902 
0.087093 
-2.626606 
0.894029 
-0.856002 
-2.770613 
-3.006943 
-0.889447 
2.003816 
0.596005 
-0.516445 
-2.312148 
0.064402 
-0.217526 
-1.669470 
-2.923727 
-2.003364 
1.584488 
0.276383 
-1.146969 
-2.128416 
-1.866475 
-2.450391 
1.027889 
0.883600 
-0.069908 
-2.782711 
0.162774 
-0.527488 
-1.954277 
-0.815461 
-1.547992 
0.224448 
-0.807541 
-1.512296 
-1.279170 
-0.914947 
-1.996324 
-0.217754 
-1.536518 
2.042339 
-3.564792 
-0.424479 
-0.854827 
-0.429705 
-1.520807 
-2.174349 
2.124374 
0.374136 
0.161920 
-2.706837 
-1.314511 
-2.376699 
2.010455 
0.701057 
0.191533 
-3.423376 
0.755584 
0.371723 
-3.558069 
0.360731 
0.026977 
-2.858476 
-1.513229 
-2.733778 
1.896269 
0.472551 
0.424009 
-2.667336 
-1.765304 
-2.537323 
1.911879 
-1.232752 
1.568496 
-2.106189 
0.743421 
0.037952 
-1.361809 
-0.502927 
0.501475 
-1.498996 
-0.997479 
-1.443420 
0.550452 
0.033525 
-2.749556 
0.495622 
-0.288117 
-1.659037 
-0.423299 
-1.074207 
-2.125701 
1.569448 
-0.019894 
-0.784673 
-1.525879 
-1.282494 
-1.925272 
1.877298 
