-1.119236 
0.022753 
-0.105034 
0.606423 
-0.782249 
0.131296 
-2.166104 
1.143059 
-0.672916 
1.337063 
-0.289112 
-0.642304 
-0.936398 
-0.984624 
-1.148133 
-0.771549 
0.383364 
-0.405897 
0.314705 
1.616515 
1.440592 
-0.350837 
-0.368500 
-1.320179 
-0.691716 
-0.326164 
-1.094174 
0.560610 
-1.272697 
0.567337 
-2.622845 
0.443756 
-0.346087 
-0.522262 
-0.440444 
1.110203 
-0.772949 
-0.299973 
-1.432954 
-1.072526 
1.452475 
0.254494 
-0.542150 
-0.979039 
-0.643482 
-0.630695 
0.185222 
-1.702761 
-0.311781 
-1.102866 
-1.087054 
-0.723584 
-0.476661 
-0.611745 
1.644715 
-1.004039 
-0.118727 
-0.642672 
-1.208894 
-1.692695 
1.103619 
-0.966516 
0.264976 
-0.539264 
0.789079 
-0.257339 
0.268084 
-0.517614 
0.269175 
-0.613454 
1.176376 
-1.264131 
0.339367 
1.029750 
-0.172424 
-0.566636 
-0.484397 
-0.753752 
-0.644234 
-0.151812 
0.777493 
0.085303 
1.681258 
-0.120915 
1.074979 
-0.165753 
0.040738 
-1.051534 
-2.041661 
-0.660426 
-1.273594 
-1.755849 
0.441125 
-0.206083 
-0.301950 
-0.800509 
1.594113 
1.042564 
-0.162831 
0.034092 
0.137813 
1.963344 
-1.167870 
0.008973 
-0.372898 
1.191611 
-0.743518 
-0.416077 
-0.381463 
-1.259233 
-1.115368 
-0.568822 
-2.596514 
-0.355743 
-0.947865 
-0.228890 
-0.978025 
0.090209 
-0.981722 
1.029188 
-0.481421 
-1.341602 
0.934856 
-0.268142 
-0.026665 
-0.307839 
-0.593434 
1.308097 
-0.050366 
-1.580726 
-0.324966 
0.077729 
0.477217 
-0.322864 
0.401725 
-1.130175 
-0.451658 
-0.789572 
-0.462760 
-0.439272 
-0.636902 
1.854126 
-0.588075 
-0.853985 
0.508004 
-0.533519 
-0.987259 
1.500812 
1.244187 
-0.710207 
-1.092862 
0.797558 
0.217649 
-1.497586 
-0.502671 
-0.354313 
-0.167624 
-0.454878 
0.090766 
-0.129369 
-0.451759 
-0.102250 
0.335998 
-0.301653 
-0.493717 
0.287699 
-0.355624 
-0.129133 
1.561524 
-0.162706 
-3.134993 
1.721856 
2.266944 
-0.136125 
0.757071 
-1.395007 
-1.480469 
-0.601724 
0.892159 
1.315652 
-0.587313 
-0.427543 
-1.663647 
-1.312502 
1.078403 
-0.716455 
-0.399345 
0.452824 
-0.903684 
-0.314115 
-0.699112 
0.866941 
-1.474406 
-0.339679 
-3.700927 
-0.530742 
-1.038446 
1.241846 
-0.601686 
-1.159671 
-1.160239 
-1.574318 
-1.499589 
2.182518 
-0.899036 
-0.851492 
0.428127 
-0.363162 
-1.006480 
1.016183 
-0.837555 
-1.517095 
-0.779688 
0.094640 
-0.825549 
0.445209 
0.766607 
-0.123679 
0.103566 
-0.708227 
-0.521762 
-0.936557 
0.107481 
-0.364939 
-0.586420 
-0.733769 
-0.122599 
-0.258259 
0.021621 
-0.069052 
-0.503933 
0.281597 
-0.127780 
-0.479143 
-0.910716 
-1.804989 
1.071106 
-1.188038 
-1.394150 
1.142697 
0.486051 
-0.379554 
1.811368 
-0.726681 
0.743204 
-0.916202 
-0.444615 
-0.359205 
-0.890542 
-0.165749 
-1.090742 
0.297641 
-2.398505 
-1.118596 
-0.243024 
0.832221 
-0.672546 
0.513208 
-0.212774 
-0.300261 
1.384078 
0.736900 
0.152419 
-0.267710 
-0.033712 
-0.808916 
-0.960953 
0.653960 
1.404141 
-1.629581 
-0.418848 
0.155082 
1.416867 
-0.106056 
-1.050071 
1.151458 
-2.487672 
-1.389825 
-0.160853 
-0.588211 
-1.118273 
0.944004 
1.906262 
-0.264996 
-0.577014 
-1.033280 
-0.948662 
0.362986 
-2.295490 
-0.603883 
0.893743 
-1.133395 
-0.612260 
-1.504270 
-0.613331 
0.163015 
0.864116 
-1.057455 
-0.664126 
0.344197 
-0.267652 
-1.173797 
-0.626012 
0.140396 
-0.450549 
-1.419365 
-0.893330 
-1.329394 
1.176955 
-0.332905 
0.883135 
0.032557 
-0.163984 
0.946321 
0.449813 
-0.442097 
-1.173478 
-1.851512 
0.379568 
-0.080815 
0.166382 
-0.738641 
-1.229806 
0.897594 
-0.960698 
1.301841 
0.766863 
0.031609 
-1.291006 
0.353754 
-0.112491 
0.544035 
-0.742312 
-0.322296 
-2.355373 
1.078099 
-1.495667 
-0.397399 
0.764678 
-1.230508 
1.878390 
-1.198275 
-1.054575 
-0.771558 
0.857781 
0.133708 
0.524690 
-1.176024 
1.028532 
0.408396 
-1.141593 
0.779043 
-1.206295 
-0.935630 
0.540953 
-0.977961 
0.497960 
-1.384948 
-2.607231 
-0.471909 
1.174254 
1.090064 
-0.259500 
-0.724202 
1.126924 
1.437469 
-1.696747 
-1.368816 
-0.228364 
